//auto-generated from train/train.py DO NOT EDIT PLS
#pragma once

namespace pres_weights {

constexpr int K = 16;
constexpr int H = 64;

constexpr float W1[H][K] = {
    { -1.83230945e-01f, 1.73511249e-01f, 1.30884950e-01f, -1.24432732e-01f, -2.63173463e-03f, -2.55051904e-02f, 7.37054167e-02f, 1.43169569e-01f, -1.99746347e-01f, -2.37279869e-01f, 1.67737230e-01f, -3.01146517e-02f, 1.37679019e-01f, -2.56890268e-01f, -2.32687652e-02f, 1.06969408e-01f },
    { -1.37524692e-01f, 2.19729540e-01f, 2.00050326e-01f, -2.33702350e-01f, -2.40089575e-01f, 1.61372597e-02f, 2.17994875e-01f, -5.93219091e-02f, -1.43603042e-01f, -3.33796750e-02f, -2.34419226e-01f, -1.44564080e-01f, -3.62312799e-02f, 1.35761790e-02f, -1.39820249e-01f, -1.40756326e-01f },
    { -1.43975824e-01f, -2.58754614e-02f, -1.05942497e-01f, -2.36776135e-01f, 1.63274344e-01f, 1.88253491e-02f, 6.76527702e-02f, -1.56994341e-01f, 2.43475273e-01f, 1.91831792e-01f, -1.87545598e-01f, -9.54464937e-02f, 1.01307793e-01f, 1.37722971e-01f, 2.07290675e-01f, -5.32418035e-02f },
    { 1.62382868e-01f, 8.12740287e-02f, -9.98572546e-02f, 4.38387215e-02f, 1.87217824e-01f, 1.66919734e-01f, -5.49115113e-04f, 4.39855848e-02f, -2.33480781e-01f, -1.22176295e-01f, 1.50189942e-01f, -4.76737377e-02f, -1.66772578e-01f, 4.01741225e-02f, 9.48781915e-02f, 7.69199544e-02f },
    { -6.01748184e-02f, -2.61912200e-02f, 4.36513894e-03f, 1.36408980e-01f, 1.45632945e-02f, -4.60226838e-02f, -2.90050190e-03f, -2.35467612e-01f, -2.24947140e-01f, 9.19570712e-02f, 2.40185996e-01f, 5.72586395e-02f, -4.36305541e-02f, -1.92737656e-01f, 1.09865405e-02f, 2.51342788e-01f },
    { 1.35702820e-01f, 2.05336193e-02f, 1.80130665e-01f, -1.34322928e-01f, 7.53534278e-03f, 2.27630788e-01f, 3.98170092e-02f, -2.02093475e-02f, -1.15541824e-01f, 2.24752899e-02f, 2.28588420e-01f, -2.45564366e-01f, 1.42110758e-01f, 1.56274956e-01f, 1.93789135e-01f, 1.23258058e-01f },
    { 1.56063778e-01f, 1.17112832e-02f, 3.11796216e-02f, -3.76728999e-02f, -2.19577399e-01f, 1.89057752e-01f, 3.69746285e-02f, -1.49845592e-01f, 2.93204989e-03f, -1.21659612e-02f, -7.23376632e-02f, -7.28060687e-02f, 2.18921075e-02f, 4.97654305e-02f, 6.04187339e-02f, -1.39120396e-02f },
    { -2.32327208e-01f, -1.29168758e-01f, -1.60347865e-01f, 3.99199232e-02f, 1.86456456e-01f, 1.59391814e-01f, 1.52886173e-01f, 1.58551049e-01f, -1.19778801e-01f, 1.58607296e-01f, 8.45204464e-02f, -1.96723165e-01f, -2.32900165e-01f, -2.75854729e-01f, 1.39086283e-01f, -1.09261510e-01f },
    { -1.92174926e-01f, 6.67244306e-02f, -7.61060240e-02f, -2.15262143e-01f, -1.65860413e-01f, 2.03899041e-02f, -1.62218726e-01f, -1.12540281e-01f, 1.06875558e-01f, -2.89513675e-02f, -8.98329532e-02f, -7.06955078e-03f, -2.34384511e-01f, -7.30237434e-02f, -3.28503134e-02f, -1.44824383e-01f },
    { -1.92836361e-01f, 2.04533767e-01f, 5.57657013e-03f, -1.47814913e-01f, 5.73112453e-02f, 1.66281460e-01f, -2.36882689e-01f, -2.41142895e-01f, -1.73725874e-01f, 9.96434590e-02f, -1.71421143e-01f, 1.12474515e-01f, 9.79664633e-02f, -5.17429228e-03f, -1.29503565e-01f, 2.49250989e-01f },
    { 1.53107170e-01f, 1.52035768e-02f, -1.37268170e-01f, 7.16292066e-02f, -4.57797923e-02f, 4.95168501e-02f, -8.43361905e-02f, 6.60502825e-02f, -2.17846341e-01f, -1.14471188e-01f, 2.31877040e-01f, 2.01581495e-01f, -8.69284199e-02f, 1.42352926e-01f, -8.27019537e-02f, 2.38223017e-01f },
    { 1.21610409e-01f, -4.23362456e-02f, -1.23934155e-01f, -2.45879268e-01f, 1.88964525e-01f, -2.31970144e-01f, 1.58504020e-01f, 2.30593936e-01f, 3.62207634e-02f, -1.63723495e-01f, 1.83673963e-01f, 2.36692537e-01f, 1.03709695e-01f, 4.81830551e-03f, -6.02194900e-02f, -7.97150831e-02f },
    { -1.48765146e-01f, 8.44639008e-02f, -3.42184984e-02f, -1.52280152e-01f, -2.00506622e-01f, 7.86523973e-02f, -1.03678333e-01f, -8.89195455e-05f, -8.84569568e-02f, 1.91038700e-01f, 2.01127001e-01f, -2.45264809e-01f, -1.53383317e-01f, -7.28064456e-02f, 2.37903899e-01f, 1.34589662e-01f },
    { -8.08115302e-02f, -1.44045251e-01f, 8.70142871e-02f, 1.68824760e-01f, 2.15513004e-01f, -7.89555270e-02f, 1.90687741e-01f, 9.33888892e-02f, -7.79313239e-03f, 2.43616815e-01f, -1.32515760e-01f, 1.11938179e-01f, -2.08009173e-01f, -1.63126308e-01f, 2.04925101e-01f, -1.45016888e-01f },
    { 1.28724606e-01f, 4.90861765e-02f, 1.69729560e-01f, -6.67907080e-02f, -8.10169391e-02f, -1.06015282e-01f, 1.82099389e-01f, 5.14449348e-02f, 2.28269560e-01f, 1.94604696e-01f, -1.81917275e-01f, 2.61227694e-02f, -1.96012863e-01f, -2.29879939e-01f, -2.13816327e-01f, 1.79014572e-01f },
    { 1.47305733e-01f, 1.69738526e-01f, -7.89772320e-02f, 5.46639104e-02f, 1.46375875e-01f, -5.16336812e-02f, 3.84902919e-02f, -1.38338718e-01f, -2.05209692e-01f, -1.28510739e-01f, 1.93436469e-01f, 4.45762201e-02f, 2.23705973e-01f, -5.47375883e-02f, -9.87924783e-02f, 1.56820684e-01f },
    { 1.66525369e-01f, -2.39748484e-01f, 8.61737849e-02f, -2.05067196e-01f, -1.88508059e-01f, 1.99248836e-01f, -2.26368887e-01f, -1.29460523e-01f, 2.44561617e-01f, -4.68088506e-02f, -1.93174521e-01f, -1.59453607e-01f, -1.25754056e-01f, 1.03531949e-01f, -1.92754110e-01f, 2.17548036e-01f },
    { -6.20828456e-02f, 2.33131047e-01f, 2.04427908e-01f, -1.01873277e-01f, -1.25111427e-01f, -1.47536005e-02f, -2.01052318e-01f, 7.61169929e-02f, -2.31420038e-01f, -2.40583519e-01f, 2.41761350e-01f, -1.06765608e-01f, 4.45115707e-02f, -1.30742252e-02f, -9.75339274e-02f, -2.23365801e-01f },
    { 2.03560929e-01f, 2.29991645e-01f, 2.33706951e-01f, -1.93048479e-01f, -1.47234919e-01f, 5.07302899e-02f, 2.35999186e-01f, 2.09843849e-02f, 9.29274005e-02f, 9.03343594e-02f, -1.18698871e-01f, 1.28139773e-02f, -1.01464840e-01f, -1.02584760e-01f, -2.17742347e-01f, -1.23508344e-01f },
    { 2.42372500e-01f, -2.49711165e-02f, 7.62608237e-02f, 7.16117543e-02f, 2.21421896e-01f, -5.28411124e-02f, -9.52071817e-02f, -8.59668766e-02f, -9.22017376e-02f, 1.71643527e-01f, 1.96590498e-01f, -9.70125240e-02f, -8.30435387e-02f, 1.79904814e-02f, 4.00893130e-02f, 5.22236362e-02f },
    { -1.23953053e-01f, -2.34777303e-01f, -1.26055062e-01f, -2.13666086e-01f, 3.07423891e-02f, -2.06595974e-01f, -2.07893790e-01f, 6.87815796e-02f, -1.04048053e-01f, 1.38338914e-01f, -4.78367843e-03f, 1.87631695e-01f, -1.69564158e-01f, -1.80758851e-02f, 1.54899033e-01f, -1.97636484e-01f },
    { 2.29967123e-01f, -1.54631413e-01f, 1.39341838e-01f, 2.38273264e-01f, 1.69348909e-01f, -7.54053374e-02f, -1.91353282e-01f, 6.90596588e-03f, 2.15268543e-01f, -1.21646842e-01f, 1.93712714e-01f, -1.60880172e-01f, 2.21770255e-01f, -2.85178536e-01f, -7.17487364e-02f, 2.23125307e-01f },
    { 1.53279750e-01f, 2.05481178e-01f, 1.71203372e-01f, 1.23410126e-01f, 9.68069591e-02f, -1.57632732e-01f, -3.12233904e-02f, -1.70405300e-01f, 1.06432367e-01f, 8.09079173e-02f, -1.24316711e-01f, -2.16386059e-01f, 2.30842206e-01f, 1.48253146e-01f, 2.65679636e-02f, 2.79169772e-02f },
    { 1.74635095e-01f, -2.48737422e-02f, -5.26326846e-02f, -8.04840311e-02f, -1.22547209e-01f, -2.40176461e-01f, 7.21176651e-02f, -4.17930695e-02f, 3.49622554e-02f, -2.16090064e-01f, -7.18648880e-02f, -1.83110989e-01f, -1.89014909e-01f, -1.13796292e-01f, 1.62008528e-01f, -5.50151607e-02f },
    { -4.52657683e-02f, 6.29592828e-02f, -1.32003262e-01f, -2.48964193e-01f, 2.09853615e-02f, 1.15831771e-02f, 7.85696947e-02f, -3.08159115e-02f, 9.72817923e-02f, 1.02273159e-01f, -1.32975773e-01f, 1.11174706e-02f, 1.30546508e-03f, -1.74892803e-01f, -2.93583586e-02f, 4.66445080e-02f },
    { 2.05377199e-01f, 2.11752033e-01f, -1.11374926e-01f, 7.32914596e-02f, -2.22985765e-01f, -2.09415989e-01f, 9.12255998e-03f, 1.89671522e-01f, -1.71201561e-01f, 1.28315723e-01f, 1.90830208e-01f, -9.04085115e-02f, 9.63894221e-02f, 1.64392978e-01f, -6.19929592e-02f, 1.10396902e-01f },
    { 1.16153217e-01f, 4.39566267e-02f, 1.77535145e-01f, 1.99845803e-01f, 2.26809549e-01f, 3.03761581e-02f, -1.63163200e-01f, -1.24311479e-01f, -1.44163208e-01f, 4.15567063e-02f, 1.30122586e-01f, -2.31122991e-01f, 8.31847730e-02f, 1.28565826e-01f, -8.42795732e-02f, 1.23811035e-03f },
    { -1.71850092e-01f, 1.08724371e-01f, -2.31639505e-01f, 2.41320911e-01f, 1.47855187e-01f, 5.43159883e-02f, -1.21482528e-01f, 2.05481662e-01f, 2.28796154e-01f, -1.69908774e-01f, 1.39667134e-01f, 1.61951205e-01f, 7.46966302e-02f, 1.26575026e-01f, -3.69374483e-02f, 1.95016538e-01f },
    { 2.37488389e-01f, -5.56668934e-02f, 1.51667734e-01f, -3.52184362e-02f, -1.64599374e-01f, -8.19826217e-02f, -1.85028207e-01f, 2.04336674e-01f, 2.31715262e-01f, -1.97153386e-01f, 4.92985892e-02f, -3.88560297e-02f, -1.84924515e-01f, -1.21258524e-01f, -1.19181977e-01f, 1.32510984e-01f },
    { -2.48587152e-01f, -1.55930651e-01f, -3.10880200e-02f, -2.39653816e-01f, 6.27891619e-02f, 5.14824785e-02f, 1.67060414e-01f, -1.46695002e-01f, -1.07787586e-01f, 2.26273656e-02f, -1.12775073e-01f, 4.22788813e-02f, -1.25287399e-01f, 9.49087339e-02f, 1.43628718e-01f, 1.52214267e-01f },
    { 2.37114331e-01f, 2.32691939e-02f, -4.75463498e-03f, 1.77351166e-01f, 1.35032186e-01f, 3.65136172e-02f, -5.74854678e-02f, -1.07708071e-01f, -1.96245861e-01f, 1.52367497e-01f, -1.90887667e-01f, 1.25203024e-01f, 2.26666897e-02f, 2.28900209e-01f, 1.30735971e-01f, 2.39731019e-01f },
    { -1.77558531e-01f, 6.69315726e-03f, 3.77816045e-02f, -9.62216090e-02f, 7.98512719e-03f, -6.07532250e-02f, 1.92026217e-02f, -2.49010855e-01f, -2.66543940e-02f, -3.76267361e-02f, -9.97022140e-02f, -3.89247477e-02f, 1.49683935e-01f, 5.91944196e-02f, 8.20949731e-03f, 9.18400776e-02f },
    { -6.08324697e-02f, -1.47724916e-01f, -2.47272515e-01f, -1.09846380e-01f, 4.95840369e-02f, 1.91267722e-01f, 1.66061542e-01f, 6.25333795e-03f, 2.41768615e-01f, -1.84951267e-02f, 1.67260795e-01f, -4.74683467e-02f, 1.18837423e-01f, 2.48202806e-01f, -9.91675457e-02f, -1.62428800e-01f },
    { 6.32518049e-02f, 2.05304033e-02f, -6.88119249e-02f, -2.49153736e-01f, -5.03748826e-02f, -2.90024303e-02f, -4.37069058e-02f, 1.80969281e-01f, 4.35806862e-02f, 1.07565349e-01f, 1.97042473e-01f, 1.32395386e-01f, 1.92546730e-03f, 9.88880642e-02f, 7.82922664e-02f, 8.70300002e-02f },
    { 6.67791772e-02f, -4.37240251e-02f, 6.57420222e-02f, 6.70531396e-02f, 2.21394938e-01f, 1.45815846e-01f, 1.76166382e-01f, 1.34506221e-01f, 1.57020349e-01f, 4.83452498e-02f, -7.60986865e-02f, -1.14812288e-01f, 1.04297716e-01f, 1.77443671e-01f, 2.54731491e-02f, -1.64687201e-01f },
    { 1.64955503e-01f, -9.89464292e-03f, -1.75135982e-02f, -2.28091478e-01f, 2.92490690e-03f, 1.18738659e-01f, -4.20437897e-02f, -7.36382155e-02f, 8.06241632e-02f, -2.37279521e-01f, 3.93206461e-03f, 2.21745817e-01f, 9.80508841e-02f, -4.49415939e-02f, 9.46874988e-02f, 4.34535810e-02f },
    { -1.47718570e-01f, -1.49780542e-01f, 1.92633227e-01f, -1.13483855e-01f, -2.16116282e-01f, 1.59163528e-01f, 9.60043895e-03f, -6.56283063e-02f, 3.23154176e-03f, 1.26333822e-01f, -1.64364666e-01f, 6.85310998e-02f, 9.93638290e-02f, 1.79962418e-01f, -1.23760965e-01f, 4.59386342e-02f },
    { -1.29240632e-01f, 3.81052212e-02f, -1.62541541e-01f, 1.41642414e-01f, 1.90751090e-01f, -7.26584111e-02f, -1.34326536e-01f, 2.31618091e-01f, 1.07582038e-01f, 1.56229911e-01f, -2.37583324e-01f, 2.14735551e-01f, 7.44089274e-02f, -1.34575674e-01f, -1.75864786e-02f, 1.49539867e-01f },
    { 1.47006492e-01f, -1.47997232e-01f, 6.41163533e-02f, -1.69782908e-01f, 2.43420992e-01f, -1.62305481e-02f, 2.12125088e-01f, 1.14792412e-01f, 5.52470508e-02f, -1.33067914e-01f, 1.13184099e-02f, -1.66976345e-01f, -1.72043665e-01f, 7.06708833e-02f, -5.76198424e-02f, 1.45818942e-01f },
    { -1.30375780e-01f, 1.08445407e-01f, 1.08196098e-01f, -9.89869972e-02f, -1.97647033e-01f, -5.25897531e-02f, -6.19905160e-03f, -2.01125004e-01f, -1.53448926e-01f, -2.22598570e-01f, 4.89713346e-02f, 1.97126266e-01f, -1.35874369e-01f, -2.37667670e-01f, 1.04973697e-01f, 1.52349702e-01f },
    { 2.35354175e-01f, 6.16621088e-02f, -7.73958437e-02f, 1.67781673e-01f, -1.85844481e-01f, 1.04723450e-01f, -1.98511512e-01f, -4.98599412e-02f, -9.70710271e-04f, -7.06797630e-02f, -1.67661802e-01f, -1.26207531e-01f, 1.65939406e-01f, -4.34682440e-02f, 4.97256186e-02f, -1.30078962e-01f },
    { 1.08722866e-01f, -8.31281910e-02f, 4.75911461e-02f, 2.05030235e-01f, 2.49086204e-01f, -2.23873419e-01f, 1.50884321e-01f, 1.79397338e-01f, -9.10100505e-02f, -6.12532861e-02f, 3.95335207e-02f, 2.11047933e-01f, -5.04923018e-02f, 1.84473048e-01f, 1.30877900e-01f, -1.67449917e-01f },
    { 2.07922195e-01f, -2.41085684e-01f, -1.76345170e-01f, 8.32609326e-02f, -2.19942898e-01f, -5.83337307e-02f, -1.83631991e-01f, -1.82057664e-02f, 1.69704530e-01f, 2.01683336e-01f, -2.32894191e-01f, -2.19690076e-01f, 1.69929557e-01f, -2.30847623e-01f, -1.11197028e-01f, -1.87765396e-01f },
    { -2.01364769e-01f, -2.31521772e-01f, 7.03957318e-02f, 1.22439313e-01f, 9.80925398e-02f, 1.80688317e-01f, 8.70034686e-02f, -5.35817703e-02f, 6.38552554e-02f, 2.27230757e-01f, 6.97412724e-02f, -1.22849366e-01f, -2.20157612e-01f, 2.01336065e-01f, 4.91287928e-02f, -5.87933764e-02f },
    { 5.71360317e-02f, 3.72971258e-02f, 1.26996920e-02f, -2.21712983e-01f, -6.62339033e-02f, -3.19092010e-02f, -1.45348118e-01f, 1.90362921e-01f, -3.52269708e-02f, 6.70900381e-02f, 1.04043247e-01f, 1.34472118e-01f, 1.20187565e-01f, 8.89009591e-02f, -1.11512770e-01f, 2.56318486e-01f },
    { -1.70819000e-01f, 2.15344955e-01f, 1.78247746e-01f, 1.73590668e-01f, -2.17671589e-01f, -1.94270956e-01f, 1.60543815e-01f, -1.53409527e-02f, -6.20311009e-02f, 2.29962681e-01f, -2.32018087e-01f, 2.77147855e-02f, -1.88027889e-02f, -2.19407932e-01f, -4.04249610e-02f, 1.19556448e-01f },
    { 1.91126099e-01f, -2.38021955e-01f, 1.28174326e-02f, -2.03586017e-01f, 1.50040498e-01f, -2.07830950e-01f, -2.32617999e-01f, -5.75764727e-02f, 1.15149586e-01f, -9.17915052e-02f, -1.85091829e-01f, 1.44474670e-01f, 1.50600711e-01f, 1.83839765e-01f, -9.97189776e-02f, -3.79672439e-02f },
    { -1.30968783e-01f, 2.31694636e-02f, -8.67290408e-02f, -8.01662502e-02f, 1.36422422e-01f, 2.19446531e-01f, 3.73606069e-02f, -1.98520001e-01f, 7.57867245e-02f, -1.63779404e-02f, 2.45817480e-01f, 1.02271677e-01f, 1.63548982e-01f, 1.23512717e-01f, 9.97601532e-03f, 1.83193977e-01f },
    { 1.64279443e-01f, -1.06670940e-01f, -1.71991899e-01f, -6.39338126e-02f, 8.21197206e-03f, -2.05141236e-01f, -7.86230909e-02f, 3.76204705e-02f, -2.29736562e-01f, 1.62189655e-01f, 7.65826469e-02f, -9.73422052e-02f, -1.05058878e-01f, -6.06987188e-02f, -9.33029645e-02f, 1.18595638e-01f },
    { 2.84916782e-03f, 1.63542074e-02f, -1.74206216e-01f, 2.07462753e-01f, -8.38546168e-02f, -8.11718978e-02f, -2.12761415e-01f, 2.40310906e-01f, -9.92013515e-03f, 2.01327221e-01f, 2.12611545e-01f, 2.38554805e-01f, 1.59586746e-01f, 2.00393485e-01f, 2.15301203e-01f, 1.58914994e-01f },
    { -1.84894697e-01f, 8.18575869e-03f, 3.75563373e-02f, 2.48327881e-01f, 1.38550085e-01f, 9.52831734e-02f, 1.21037617e-01f, -6.91970004e-02f, 2.19118803e-01f, 7.96186887e-02f, -4.77584127e-02f, -2.62212515e-02f, 2.33162176e-01f, 3.80911599e-02f, -1.73505381e-01f, -1.85504436e-01f },
    { 9.50927443e-02f, 3.34260190e-02f, 2.04444240e-01f, -1.57269227e-01f, -4.22880148e-02f, 1.17173979e-01f, -2.22948263e-01f, -1.99932557e-01f, 2.26278813e-02f, -1.20108848e-01f, -1.97340051e-01f, -1.17553853e-01f, 6.64713563e-02f, 6.82577890e-03f, -2.07922743e-01f, -2.07626311e-01f },
    { 1.75349811e-01f, 7.17126592e-02f, -1.63323510e-01f, 1.80707221e-01f, -2.38963672e-01f, -6.59036196e-02f, 1.73353693e-01f, 1.04841516e-01f, -1.07326580e-01f, 1.95239752e-01f, 4.88040832e-02f, 1.83281627e-01f, 1.97916428e-01f, -3.90174620e-02f, 8.89934246e-02f, 2.12536030e-02f },
    { 2.23167650e-01f, 1.50042916e-01f, 1.13812154e-01f, 1.57998232e-01f, 2.50255795e-01f, -1.20124784e-01f, -1.47681440e-01f, 1.23859270e-01f, 1.33782882e-01f, 6.13381362e-03f, -7.11064934e-03f, -4.92644985e-02f, 1.89005745e-01f, 1.48038768e-01f, 4.27573249e-02f, -2.25693789e-01f },
    { 1.70711309e-01f, -2.88299611e-02f, -1.56395973e-01f, -9.69602491e-02f, 8.77214313e-02f, -2.60844265e-01f, -1.95362787e-01f, -9.87114835e-02f, 1.89923856e-01f, 1.40327630e-01f, 2.38432075e-01f, 5.65418807e-03f, 2.36204333e-02f, 7.13966621e-02f, -2.86317645e-03f, -6.50149174e-05f },
    { 1.60012530e-01f, 2.27620800e-01f, -4.51432939e-02f, 6.55981207e-02f, -9.50404851e-02f, -9.75558266e-02f, 4.38842881e-03f, 4.34626132e-02f, 2.43068417e-02f, 2.37145514e-01f, -1.69032436e-01f, 6.81134273e-02f, 2.46268147e-01f, 1.16654115e-01f, 3.38514201e-02f, -6.25139702e-02f },
    { -5.13787195e-02f, 2.14541018e-01f, 1.96613773e-01f, 8.54745284e-02f, 1.95735905e-01f, 2.06553448e-01f, 1.69985510e-01f, -5.89202204e-02f, -1.84723911e-02f, 1.54422090e-01f, -6.27527020e-02f, 1.18698172e-01f, -1.27357758e-02f, -6.53102959e-02f, -2.76194635e-02f, -2.02331661e-01f },
    { -7.37533905e-02f, -4.39447905e-02f, -2.41410551e-01f, -1.64103327e-01f, -1.21425799e-01f, 1.76217568e-01f, 4.25043620e-02f, -1.07234766e-01f, 2.50190936e-01f, -1.18578706e-01f, 7.10690900e-03f, 1.17992422e-01f, 9.69868234e-02f, -2.88309812e-02f, 1.38478547e-01f, -1.36949375e-02f },
    { 1.04246281e-01f, -1.00959488e-02f, 2.34898549e-01f, 1.10757475e-01f, -2.09919812e-01f, -1.94935078e-01f, 2.29691426e-01f, -1.35268946e-01f, -2.40148294e-01f, -1.11247146e-01f, -8.13717742e-03f, 2.14024219e-01f, -6.06399102e-02f, 1.45194039e-01f, 1.54883343e-01f, -2.19994442e-01f },
    { 5.62653637e-02f, 2.48780890e-01f, 2.41663043e-02f, 1.54610249e-02f, -7.59645043e-02f, 2.24764106e-01f, 2.34640494e-01f, -1.98879022e-01f, 2.82960802e-02f, -4.32728834e-02f, 8.56818443e-02f, -1.86178707e-01f, -1.12684221e-01f, -1.21156988e-01f, -6.83065253e-03f, 1.48130690e-01f },
    { 1.75124098e-01f, 1.36997994e-01f, 8.74833680e-02f, -2.03482707e-01f, -6.12254048e-02f, 7.39902263e-02f, -1.06417006e-01f, 4.20166494e-03f, 1.98506760e-01f, -1.78887138e-01f, 1.79253920e-01f, -2.09930347e-01f, -6.85613604e-02f, 2.39061961e-01f, -1.63676338e-01f, -4.71903611e-03f },
    { -3.94452717e-02f, 1.97440270e-01f, 2.46420620e-01f, -1.07578480e-01f, -4.15441369e-04f, 2.03403203e-01f, 2.45288812e-02f, -1.42582667e-01f, 1.32741030e-01f, -8.82516855e-02f, -7.57762483e-03f, -2.37797263e-01f, 2.51639948e-01f, 5.75525516e-02f, 2.21205111e-01f, 2.42489086e-01f },
    { -1.18086433e-01f, 1.71446450e-02f, -3.02361054e-02f, 1.31634022e-01f, 1.68160666e-01f, -1.40881120e-01f, -1.14178774e-01f, 1.03443941e-01f, -4.66793998e-02f, -1.78121082e-01f, -1.51175225e-01f, 2.33724539e-02f, 4.23415109e-02f, 2.49485382e-01f, 8.77852353e-03f, 4.75875228e-02f },
    { -1.77889758e-01f, -4.68207755e-02f, -1.10545386e-01f, 9.95829055e-02f, -1.20035373e-01f, -1.49075840e-01f, -6.85637035e-02f, -1.48796874e-02f, -8.33186112e-02f, 6.02288264e-02f, -1.58733779e-01f, 1.81527880e-01f, 9.00019734e-02f, 3.89778810e-02f, -2.29033235e-01f, -9.63463243e-02f },
};

constexpr float b1[H] = { -4.91860289e-05f, 2.77047520e-04f, 3.79875954e-04f, -3.70943319e-05f, -4.05151689e-05f, 4.30038580e-05f, 4.79681981e-06f, 7.18966488e-04f, 4.27653938e-04f, -8.42857453e-05f, 1.52879420e-04f, -3.65080378e-05f, -1.07394383e-04f, -2.81081862e-05f, 1.59831684e-05f, 2.56360862e-04f, 2.69326274e-04f, 2.82893418e-04f, 2.21130690e-04f, 4.06504750e-05f, 4.33204551e-04f, 6.23131905e-04f, 5.15511532e-05f, -1.79906050e-05f, 3.15584502e-04f, 3.48337585e-05f, -1.48656294e-04f, 1.47104309e-04f, 3.01974641e-05f, -1.44736705e-05f, 6.38239694e-05f, 9.19395270e-05f, 2.35892357e-04f, -6.57905076e-04f, 1.75337493e-04f, 1.06373901e-05f, 2.43244233e-05f, -1.16686965e-05f, 4.33031254e-05f, -5.38350488e-05f, -3.28317096e-04f, 8.69217447e-05f, 4.46682005e-05f, 7.35218175e-05f, -2.19349918e-04f, -1.67703294e-05f, -1.06297855e-04f, 3.40844148e-04f, -2.49660920e-04f, -5.16897912e-04f, -4.82710145e-04f, -2.06167238e-04f, -2.41333112e-05f, -2.30901058e-05f, 1.53115321e-04f, 1.36346445e-05f, -5.35837661e-04f, 5.10570600e-06f, -7.14655523e-05f, 1.22711897e-05f, 7.66136225e-05f, 2.87294227e-04f, 2.61136239e-05f, -2.60849671e-04f };

constexpr float W2[H] = { -7.58741465e-02f, 7.39757460e-02f, 1.00489253e-01f, 5.89903219e-02f, -1.07595141e-01f, -6.37549310e-03f, -3.91813197e-02f, -1.17247374e-01f, -4.97282150e-02f, -1.02772276e-01f, -9.81361595e-02f, -1.90543511e-02f, 4.92673796e-02f, -3.06046959e-03f, -5.46834958e-03f, -1.34150363e-01f, -3.49022280e-02f, 4.61220770e-02f, 7.96707103e-02f, 6.07419083e-03f, -5.40319848e-02f, -2.21410124e-01f, -6.43989271e-03f, 1.29921127e-02f, -1.53135443e-01f, 1.11799748e-02f, 1.00123595e-01f, 7.76639655e-02f, -6.91261256e-02f, 1.94288628e-02f, 8.74941625e-03f, -1.10644858e-01f, 4.21364397e-02f, -7.33767459e-02f, -1.44115745e-02f, -4.22809527e-02f, 1.00413722e-01f, -1.72233209e-01f, -9.73890959e-02f, -6.58104582e-02f, -9.89436548e-02f, 3.68440135e-03f, -2.15013734e-02f, 7.16712900e-03f, -1.15799422e-01f, -1.18951164e-01f, 2.58022316e-02f, 6.00301817e-02f, 7.03934265e-02f, -3.13523153e-02f, 7.43138973e-02f, -1.73863539e-02f, -2.23441963e-02f, 5.21882954e-03f, 1.58509373e-01f, -1.82128850e-03f, 4.18952267e-02f, -3.15977838e-02f, 1.28416143e-01f, -4.74109257e-02f, 1.59162210e-01f, -1.04524084e-01f, 9.13732883e-02f, 9.15284541e-02f };

constexpr float b2 = -7.08405737e-05f;

}
